svm_type c_svc
kernel_type rbf
gamma 0.015873
nr_class 2
total_sv 23
rho -1.5784
label 1 -1
probA -2.31339
probB 0.108489
nr_sv 11 12
SV
29.0703829833853 1:1 3:1 4:1 5:1 6:1 7:1 16:1 17:1 18:1 52:1 
7.497856946731776 1:1 2:0.29998093 5:1 6:0.17417843 7:1 8:0.62647645 13:1 16:1 17:1 18:1 
21.15080607407609 1:1 2:1 5:1 6:1 7:1 8:1 11:1 15:1 16:1 17:1 18:1 24:1 25:1 
9.124511858014491 1:1 2:1 5:1 6:1 7:1 8:0.24244714 15:1 17:1 24:1 25:1 54:1 56:1 
0.235177238107021 1:1 5:1 6:0.17417843 7:1 8:0.13496811 15:1 17:1 18:1 
28.81384413257048 1:1 2:0.55501315 5:1 7:1 8:1 15:1 16:1 17:1 18:1 24:1 25:1 
9.335550068159288 1:1 2:1 3:1 4:1 5:1 6:1 7:1 8:0.20634081 11:1 15:1 25:1 62:1 
69.49510025414605 1:1 2:0.43667633 5:1 6:0.17417843 7:1 8:1 15:1 17:1 18:1 
22.1640564355829 1:1 2:1 5:1 6:1 7:1 11:1 15:1 16:1 17:1 18:1 62:1 
84 1:1 2:1 5:1 6:1 7:1 11:1 15:1 16:1 17:1 18:1 
2.940809031148711 1:1 2:1 3:0.12852882 4:0.12852882 5:1 6:1 7:1 11:1 15:1 16:1 17:1 18:1 25:1 59:1 63:1 
-45 1:1 2:0.55501315 3:0.18922115 4:0.18922115 5:1 7:1 8:0.28167468 15:1 16:1 18:1 24:1 
-1.908022011681846 1:1 2:0.18922115 3:0.18922115 4:0.18922115 5:1 6:1 7:1 8:1 14:1 15:1 16:1 17:1 18:1 20:1 24:1 
-0.04682140621322871 1:1 3:0.27092174 4:0.27092174 5:1 6:1 7:1 15:1 16:1 18:1 24:1 52:1 
-45 1:1 3:0.18922115 4:0.18922115 5:1 6:1 7:1 8:1 15:1 16:1 17:1 18:1 25:1 
-0.4130359419776226 1:1 3:0.12154947 4:0.20831717 5:0.27092174 6:1 7:1 8:1 14:1 15:1 16:1 17:1 18:1 24:1 
-18.45430004938169 1:1 5:1 6:1 7:1 8:1 11:1 12:1 15:1 16:1 17:1 18:1 
-45 1:1 2:1 5:1 6:1 7:1 8:1 11:1 15:1 16:1 17:1 18:1 
-45 1:1 2:1 5:1 6:1 7:1 8:0.14047295 15:1 17:1 
-21.78106687574186 1:1 2:1 3:0.55501315 4:0.55501315 5:1 6:1 7:1 8:0.16081594 15:1 16:1 17:1 18:1 
-7.62627415762562 1:1 2:1 5:1 7:1 15:1 16:1 17:1 
-8.598574579300234 1:1 3:1 4:1 5:1 6:0.17417843 7:1 8:0.11727336 15:1 16:1 17:1 18:1 50:1 58:1 61:1 
-45 1:1 2:1 5:1 6:1 7:1 11:1 15:1 16:1 17:1 18:1 
