svm_type c_svc
kernel_type rbf
gamma 0.0178571
nr_class 2
total_sv 39
rho -2.26704
label 1 -1
probA -1.48586
probB -0.180429
nr_sv 21 18
SV
33 1:1 2:0.29998093 5:1 6:0.17417843 7:1 8:0.62647645 13:1 
33 1:1 2:0.39497064 5:1 7:1 8:0.16552921 17:1 18:1 55:1 
33 1:1 2:1 5:1 6:1 7:1 11:1 17:1 18:1 
33 1:1 5:1 6:0.17417843 7:1 17:1 18:1 46:1 
14.85927666393109 1:1 5:1 7:1 17:1 18:1 46:1 
33 1:1 2:1 5:1 7:1 8:0.16552921 17:1 18:1 55:1 
26.32700724381128 1:1 5:1 6:0.17417843 7:1 17:1 18:1 45:1 
3.580388846210235 1:1 2:1 5:1 6:1 7:1 12:1 17:1 18:1 45:1 
33 1:1 2:1 5:1 6:1 7:1 8:0.13074858 11:1 17:1 18:1 42:1 
33 1:1 5:1 6:0.17417843 7:1 8:0.20483288 13:1 14:1 17:1 18:1 47:1 
33 1:1 2:1 5:1 7:1 17:1 18:1 
33 1:1 2:1 5:1 6:1 7:1 8:0.25412349 11:1 17:1 18:1 42:1 
33 1:1 2:1 5:1 6:1 7:1 8:0.13074858 11:1 17:1 18:1 42:1 
32.48152041080788 1:1 2:1 5:1 6:1 7:1 8:0.19575647 11:1 17:1 18:1 41:1 
33 1:1 2:1 5:1 6:1 7:1 8:0.25412349 11:1 17:1 18:1 42:1 
33 1:1 2:1 5:1 7:1 8:0.1991364 11:1 13:1 17:1 18:1 
33 1:1 2:0.29998093 5:1 6:0.17417843 7:1 8:0.62647645 13:1 
33 1:1 2:1 3:0.29998093 4:0.29998093 5:1 6:1 7:1 8:0.16552921 17:1 55:1 
25.98539758085552 1:1 2:0.23486975 5:1 6:0.17417843 7:1 8:0.2509061 13:1 17:1 18:1 45:1 55:1 
23.81668756399528 1:1 2:0.55501315 5:1 6:1 7:1 17:1 18:1 41:1 
6.404855752483817 1:1 5:1 7:1 17:1 18:1 46:1 
-51 1:1 2:1 5:1 6:1 7:1 8:0.17566185 11:1 17:1 18:1 42:1 
-51 1:1 2:0.1675188 5:1 7:1 
-27.60659660411648 1:1 2:1 5:1 6:1 7:1 8:1 11:1 17:1 18:1 42:1 
-51 1:1 2:1 5:1 6:1 7:1 8:0.17566185 11:1 17:1 18:1 42:1 
-51 1:1 2:0.31015922 5:1 6:0.17417843 7:1 8:0.19436771 13:1 17:1 18:1 
-35.84666042935863 1:1 2:1 5:1 6:1 7:1 8:0.11323603 11:1 17:1 18:1 
-35.48026820760922 1:1 2:1 5:1 7:1 17:1 18:1 47:1 
-44.24840367831072 1:1 5:1 6:0.17417843 7:1 8:0.13496811 17:1 18:1 
-3.21661471533798 1:1 5:1 6:1 7:1 8:0.16478049 12:1 17:1 18:1 55:1 
-2.329384199183725 1:1 2:1 5:1 6:1 7:1 8:0.20634081 11:1 55:1 
-10.39826316642179 1:1 2:1 5:1 6:1 7:1 8:0.20634081 11:1 55:1 
-16.52228511556497 1:1 2:0.43667633 5:1 6:0.17417843 7:1 8:1 
-51 1:1 2:1 5:1 6:1 7:1 11:1 17:1 18:1 
-39.69495502352844 1:1 5:1 7:1 8:0.1473395 17:1 18:1 55:1 
-20.74537015175533 1:1 2:1 5:1 6:1 7:1 17:1 18:1 55:1 
-51 1:1 2:1 5:1 6:0.17417843 7:1 8:0.19436771 13:1 17:1 18:1 55:1 
-51 1:1 2:0.29998093 5:1 6:0.17417843 7:1 8:0.2509061 13:1 17:1 18:1 
-2.366332770907803 1:1 2:1 5:1 6:1 7:1 11:1 52:1 56:1 
