svm_type c_svc
kernel_type rbf
gamma 0.0163934
nr_class 2
total_sv 24
rho 0.0323813
label 1 -1
probA -2.48132
probB 0.111536
nr_sv 13 11
SV
21 1:1 2:1 3:0.62647645 4:0.62647645 5:1 6:1 7:1 8:1 15:1 16:1 17:1 18:1 
0.5519719649926345 1:1 2:0.15129065 3:0.12830756 4:0.12830756 5:1 6:0.17417843 7:1 8:0.26317136 15:1 16:1 19:1 25:1 48:1 
21 1:1 2:1 3:0.27092174 4:0.27092174 5:1 6:1 7:1 8:1 15:1 16:1 17:1 18:1 
2.089449532463522 1:1 2:1 3:0.27092174 4:0.27092174 5:1 6:1 7:1 8:0.098865748 15:1 16:1 18:1 
18.800073948441 1:1 3:0.14066122 4:0.14066122 5:1 7:1 8:0.13304393 15:1 16:1 24:1 
21 1:1 2:1 3:0.13404407 4:0.13404407 5:1 6:1 7:1 8:0.21290671 15:1 16:1 17:1 18:1 
1.950063275936723 1:1 6:1 7:1 15:1 16:1 18:1 
7.27570016539245 1:1 2:0.18922115 3:0.18922115 4:0.18922115 5:1 6:1 7:1 8:1 14:1 15:1 16:1 17:1 18:1 20:1 24:1 
21 1:1 2:1 3:0.27627028 4:0.27627028 5:1 6:1 7:1 8:0.15580782 15:1 16:1 24:1 
21 1:1 2:1 3:0.18922115 4:0.18922115 5:1 6:1 7:1 8:0.11505658 15:1 16:1 18:1 
1.890465204235735 1:1 3:0.18922115 4:0.18922115 5:1 6:1 7:1 8:1 15:1 16:1 17:1 18:1 25:1 
9.54659021749146 1:1 2:0.39497064 3:0.23486975 4:0.23486975 5:1 6:0.17417843 7:1 8:0.26317136 15:1 16:1 19:1 25:1 
21 1:1 5:1 6:1 7:1 8:1 11:1 12:1 15:1 16:1 17:1 18:1 
-24 1:1 3:0.62647645 4:0.62647645 5:1 6:1 7:1 15:1 16:1 17:1 18:1 24:1 50:1 
-24 1:1 2:1 5:1 6:1 7:1 8:1 11:1 15:1 16:1 17:1 18:1 
-24 1:1 2:1 5:1 6:1 7:1 8:0.13304393 15:1 16:1 
-11.71384755295891 1:1 2:1 5:1 6:0.17417843 7:1 8:0.16557874 12:1 14:1 15:1 16:1 17:1 
-24 1:1 2:1 3:0.55501315 4:0.55501315 5:1 6:1 7:1 8:0.16081594 15:1 16:1 17:1 18:1 
-0.7699298523458904 1:1 2:1 5:1 6:1 7:1 12:1 15:1 16:1 17:1 
-0.5163951645499084 1:1 3:1 4:1 5:1 6:0.17417843 7:1 8:0.11727336 15:1 16:1 17:1 18:1 50:1 58:1 61:1 
-17.00690052140592 1:1 2:1 5:1 6:1 7:1 11:1 15:1 16:1 17:1 18:1 
-13.3062079046161 1:1 2:0.29998093 3:0.39497064 4:0.39497064 5:1 6:0.17417843 7:1 8:0.26317136 15:1 16:1 20:1 50:1 
-24 1:1 2:0.27092174 5:1 6:1 7:1 8:1 15:1 16:1 17:1 
-4.791033313076786 1:1 2:1 5:1 7:1 8:0.28136387 15:1 16:1 17:1 
