svm_type c_svc
kernel_type rbf
gamma 0.0192308
nr_class 2
total_sv 36
rho 1.68553
label 1 -1
probA -1.80023
probB -0.266441
nr_sv 22 14
SV
22 1:1 2:1 3:0.62647645 4:0.62647645 5:1 6:1 7:1 11:1 16:1 
22 1:1 2:1 3:0.62647645 4:0.62647645 5:1 6:1 7:1 
22 1:1 2:0.15129065 3:0.12830756 4:0.12830756 5:1 6:0.17417843 7:0.26317136 17:1 38:1 
22 1:1 2:1 3:0.27092174 4:0.27092174 5:1 6:1 7:1 10:1 16:1 
22 1:1 2:1 3:0.27092174 4:0.27092174 5:1 6:1 7:0.098865748 16:1 
22 1:1 3:0.14066122 4:0.14066122 5:1 7:0.13304393 16:1 
22 1:1 2:1 3:0.13404407 4:0.13404407 5:1 6:1 7:0.21290671 16:1 
22 1:1 2:1 3:0.27092174 4:0.27092174 5:1 6:1 10:1 16:1 
22 1:0.18922115 2:1 3:0.18922115 4:0.18922115 5:1 6:1 10:1 16:1 
22 1:0.18922115 2:1 3:0.18922115 4:0.18922115 5:1 6:1 10:1 16:1 
22 1:1 2:0.18922115 3:0.18922115 4:0.18922115 5:1 6:1 7:1 13:1 16:1 
22 1:1 2:1 3:0.27627028 4:0.27627028 5:1 6:1 7:0.15580782 16:1 
22 1:1 3:0.27092174 4:0.27092174 5:1 6:1 7:1 16:1 
22 1:1 2:1 3:0.18922115 4:0.18922115 5:1 6:1 10:1 16:1 
22 1:1 3:0.27092174 4:0.27092174 5:1 6:1 16:1 41:1 
22 1:1 3:0.18922115 4:0.18922115 5:1 6:1 7:1 17:1 
22 1:1 3:0.12154947 4:0.20831717 5:0.27092174 6:1 7:1 13:1 16:1 
22 1:1 2:0.43667633 3:0.39497064 4:0.39497064 5:1 6:0.17417843 7:0.26317136 17:1 
22 1:1 2:0.082837333 3:0.39497064 4:0.39497064 5:1 6:0.17417843 7:0.081880431 
22 1:1 2:1 3:0.12996241 4:0.14521436 5:1 6:1 10:1 15:1 16:1 
22 1:1 2:0.39497064 3:0.23486975 4:0.23486975 5:1 6:0.17417843 7:0.26317136 17:1 
22 1:1 5:1 6:1 7:1 10:1 11:1 16:1 17:1 
-0.007055541255921507 5:1 16:1 17:1 41:1 
-17.66036277517767 1:1 2:1 5:1 6:1 7:0.19575647 10:1 16:1 17:1 38:1 
-8.401986232256188 1:1 3:1 4:1 5:1 6:1 16:1 41:1 
-15.68013043728568 5:1 16:1 17:1 41:1 
-61.09109317096093 1:1 2:1 5:1 6:1 7:1 10:1 16:1 17:1 
-0.02113871810228175 1:1 2:1 5:1 7:1 16:1 17:1 
-32.98402999767377 1:1 2:1 5:1 7:1 16:1 17:1 
-91.23626381953602 1:1 3:0.62647645 4:0.62647645 5:1 6:1 16:1 
-16.53611728114137 1:1 2:1 5:1 6:0.17417843 7:0.24244714 15:1 
-69.74393607290402 1:1 2:1 5:1 6:1 7:1 10:1 
-36.16634376106756 1:1 2:1 5:1 6:0.17417843 7:0.16557874 11:1 13:1 
-23.05490120782416 1:1 2:1 3:0.55501315 4:0.55501315 5:1 6:1 7:0.16081594 
-4.416640984814394 1:1 2:1 3:1 4:1 5:1 6:1 9:1 11:1 
-107 1:1 3:0.29998093 4:0.29998093 5:1 6:1 7:0.16552921 16:1 
