svm_type c_svc
kernel_type rbf
gamma 0.0192308
nr_class 2
total_sv 44
rho -1.86904
label 1 -1
probA -1.16685
probB 0.128556
nr_sv 25 19
SV
33 1:1 2:1 5:1 6:1 16:1 17:1 38:1 
33 1:1 2:0.29998093 5:1 6:0.17417843 7:0.62647645 12:1 
33 1:1 2:0.39497064 5:1 7:0.16552921 16:1 17:1 51:1 
33 1:1 2:1 5:1 6:1 10:1 16:1 17:1 
33 1:1 5:1 6:0.17417843 16:1 17:1 42:1 
33 1:1 5:1 6:0.17417843 16:1 17:1 41:1 
1.205005905113669 1:1 5:1 16:1 17:1 41:1 
33 1:1 2:1 5:1 7:0.16552921 16:1 17:1 51:1 
33 1:1 5:1 6:0.17417843 16:1 17:1 41:1 
28.14250161711578 1:1 2:1 5:1 6:1 11:1 16:1 17:1 41:1 
33 1:1 2:1 5:1 6:1 7:0.13074858 10:1 16:1 17:1 39:1 
33 1:1 5:1 6:0.17417843 7:0.20483288 12:1 13:1 16:1 17:1 43:1 
33 1:1 2:1 5:1 16:1 17:1 
33 1:1 2:1 5:1 6:1 7:0.25412349 10:1 16:1 17:1 39:1 
33 1:1 2:1 5:1 6:1 7:0.13074858 10:1 16:1 17:1 39:1 
33 1:1 2:1 5:1 6:1 7:0.19575647 10:1 16:1 17:1 38:1 
33 1:1 2:1 5:1 6:1 7:0.25412349 10:1 16:1 17:1 39:1 
33 1:1 2:1 5:1 7:0.1991364 10:1 12:1 16:1 17:1 
33 1:1 3:1 4:1 5:1 6:1 16:1 41:1 
33 1:1 2:0.29998093 5:1 6:0.17417843 7:0.62647645 12:1 
33 1:1 2:1 5:1 6:1 7:0.16552921 16:1 17:1 51:1 
20.88684840804812 1:1 2:0.23486975 5:1 6:0.17417843 7:0.2509061 12:1 16:1 17:1 41:1 51:1 
9.806846151482006 1:1 2:1 5:1 16:1 17:1 42:1 
33 1:1 2:0.55501315 5:1 6:1 16:1 17:1 38:1 
9.592097748020201 1:1 5:1 16:1 17:1 42:1 
-0.1011783897310034 1:1 2:1 5:1 6:1 7:1 10:1 16:1 17:1 48:1 52:1 
-31.38894794063705 1:1 2:1 5:1 6:1 7:0.17566185 10:1 16:1 17:1 39:1 
-9.194184830942866 1:1 2:1 5:1 6:1 7:1 10:1 16:1 17:1 39:1 
-92.77413976904526 1:1 2:1 5:1 6:1 7:0.17566185 10:1 16:1 17:1 39:1 
-32.55521977611478 1:1 2:1 5:1 16:1 17:1 43:1 
-27.33476933769932 1:1 2:1 5:1 6:1 7:0.16478049 11:1 16:1 17:1 51:1 
-9.141834171678552 1:1 2:1 5:1 6:1 7:0.16552921 10:1 16:1 17:1 51:1 
-85.48775683447802 1:1 2:1 5:1 6:1 10:1 16:1 17:1 
-34.78534850749227 1:1 5:1 7:0.1473395 16:1 17:1 51:1 
-3.064153542037113 1:1 2:1 5:1 7:1 16:1 17:1 
-50.41240465925979 1:1 2:1 5:1 6:0.17417843 7:0.19436771 12:1 16:1 17:1 51:1 
-92.38701569429388 1:1 2:0.29998093 5:1 6:0.17417843 7:0.2509061 12:1 16:1 17:1 
-1.365942052764948 1:1 2:1 5:1 6:1 10:1 16:1 17:1 48:1 52:1 
-76.73952471089025 1:1 2:0.15129065 3:0.12830756 4:0.12830756 5:1 6:0.17417843 7:0.26317136 17:1 38:1 
-7.879186483800668 1:1 2:0.18922115 3:0.18922115 4:0.18922115 5:1 6:1 7:1 13:1 16:1 
-96 1:1 3:0.27092174 4:0.27092174 5:1 6:1 16:1 41:1 
-1.240837951901604 1:1 3:0.12154947 4:0.20831717 5:0.27092174 6:1 7:1 13:1 16:1 
-71.88055238548992 1:1 2:1 5:1 16:1 17:1 
-5.900302791522403 1:1 5:1 7:0.20288333 12:1 13:1 
