svm_type c_svc
kernel_type rbf
gamma 0.0192308
nr_class 2
total_sv 59
rho 0.746602
label 1 -1
probA -1.67225
probB -0.378328
nr_sv 32 27
SV
51 1:1 2:1 5:1 6:1 7:0.17566185 10:1 16:1 17:1 39:1 
51 1:1 2:0.1675188 5:1 
51 1:1 2:1 5:1 6:1 7:1 10:1 16:1 17:1 39:1 
51 1:1 2:1 5:1 6:1 7:0.17566185 10:1 16:1 17:1 39:1 
51 1:1 2:0.31015922 5:1 6:0.17417843 7:0.19436771 12:1 16:1 17:1 
51 1:1 2:1 5:1 6:1 7:0.16063191 10:1 16:1 17:1 
51 1:1 2:1 5:1 6:1 7:0.11323603 16:1 17:1 
51 1:1 2:1 5:1 16:1 17:1 43:1 
51 1:1 2:1 5:1 6:1 7:1 10:1 16:1 17:1 
13.17672017158519 1:1 2:1 5:1 6:1 7:0.24244714 16:1 17:1 43:1 45:1 
51 1:1 5:1 6:0.17417843 7:0.13496811 16:1 17:1 
10.57194974262981 1:1 2:1 5:1 6:1 7:0.16478049 11:1 16:1 17:1 51:1 
29.7975548313352 1:1 2:1 5:1 6:1 7:0.16552921 10:1 16:1 17:1 51:1 
51 1:1 2:0.55501315 5:1 7:1 16:1 17:1 
51 1:1 2:1 5:1 7:1 16:1 17:1 
51 1:1 2:0.55501315 5:1 7:1 16:1 17:1 
51 1:1 2:1 5:1 6:1 7:0.20634081 51:1 
51 1:1 2:1 5:1 6:1 7:0.20634081 51:1 
13.64426397109638 1:1 5:1 6:1 7:0.20634081 10:1 11:1 16:1 17:1 51:1 
51 1:1 2:0.43667633 5:1 6:0.17417843 7:1 
9.206773037122554 1:1 2:0.39497064 5:1 6:1 7:0.19436771 12:1 16:1 17:1 51:1 
1.106219727581881 1:1 5:1 6:1 16:1 17:1 51:1 
51 1:1 2:1 5:1 6:1 10:1 16:1 17:1 
9.124815366674339 1:1 5:1 6:1 16:1 17:1 51:1 
5.205402630075015 1:1 5:1 7:0.1473395 16:1 17:1 51:1 
51 1:1 2:1 5:1 7:1 16:1 17:1 
51 1:1 5:1 6:1 16:1 17:1 51:1 
50.6771550017904 1:1 5:1 6:1 7:0.20634081 10:1 11:1 16:1 17:1 51:1 
0.8900646023323197 1:1 5:1 6:1 14:1 16:1 17:1 51:1 
51 1:1 2:1 5:1 6:0.17417843 7:0.19436771 12:1 16:1 17:1 51:1 
51 1:1 2:0.29998093 5:1 6:0.17417843 7:0.2509061 12:1 16:1 17:1 
32.99200399625791 1:1 2:1 5:1 6:1 10:1 48:1 52:1 
-78 1:1 2:0.39497064 5:1 7:0.16552921 16:1 17:1 51:1 
-78 1:1 2:1 5:1 6:1 10:1 16:1 17:1 
-0.1240860996588662 1:1 5:1 15:1 16:1 17:1 42:1 
-78 1:1 2:1 5:1 7:0.16552921 16:1 17:1 51:1 
-1.418696196266878 1:1 2:1 5:1 6:1 7:0.13074858 10:1 16:1 17:1 39:1 
-36.33603711419543 1:1 5:1 6:0.17417843 7:0.20483288 12:1 13:1 16:1 17:1 43:1 
-78 1:1 2:1 5:1 16:1 17:1 
-78 1:1 2:1 5:1 6:1 7:0.25412349 10:1 16:1 17:1 39:1 
-4.084530568493408 1:1 2:1 5:1 6:1 7:0.19575647 10:1 16:1 17:1 38:1 
-78 1:1 2:1 5:1 6:1 7:0.25412349 10:1 16:1 17:1 39:1 
-63.17837802417154 1:1 2:1 5:1 7:0.1991364 10:1 12:1 16:1 17:1 
-19.34727963987895 1:1 2:0.29998093 5:1 6:0.17417843 7:0.62647645 12:1 
-78 1:1 2:1 5:1 6:1 7:0.16552921 16:1 17:1 51:1 
-50.79307664693108 1:1 2:0.23486975 5:1 6:0.17417843 7:0.2509061 12:1 16:1 17:1 41:1 51:1 
-2.518178787764314 1:1 2:0.55501315 5:1 6:1 16:1 17:1 38:1 
-10.09648309211643 1:1 5:1 16:1 17:1 42:1 
-11.05084007061268 1:1 2:1 3:0.27092174 4:0.27092174 5:1 6:1 7:1 10:1 16:1 
-1.580864473103236 1:1 3:0.14066122 4:0.14066122 5:1 7:0.13304393 16:1 
-39.86583672059063 1:1 3:0.27092174 4:0.27092174 5:1 6:1 7:1 16:1 
-56.03458521283102 1:1 3:0.18922115 4:0.18922115 5:1 6:1 7:1 17:1 
-78 1:1 5:1 6:1 7:1 10:1 11:1 16:1 17:1 
-46.38016197387242 1:1 2:1 5:1 6:1 7:1 10:1 
-78 1:1 2:1 5:1 6:1 7:0.13304393 16:1 17:1 
-78 1:1 2:1 5:1 16:1 17:1 
-1.072823044352285 1:1 2:1 5:1 7:0.28136387 
-78 1:1 2:0.27092174 5:1 6:1 7:1 
-45.51106541364189 1:1 2:1 5:1 7:0.28136387 
