svm_type c_svc
kernel_type rbf
gamma 0.0192308
nr_class 2
total_sv 39
rho 1.86922
label 1 -1
probA -1.6035
probB -0.217146
nr_sv 23 16
SV
23 1:1 3:0.62647645 4:0.62647645 5:1 6:1 16:1 
23 1:1 3:0.15551596 4:0.15551596 5:1 6:1 7:0.10093547 16:1 
23 1:1 2:1 5:1 6:0.17417843 7:0.24244714 15:1 
23 1:1 2:1 5:1 6:1 7:1 10:1 
23 1:1 2:1 5:1 6:1 7:0.14047295 
23 1:1 2:0.30249418 3:0.19698683 4:0.19698683 5:1 6:1 7:1 
23 1:1 2:1 5:1 6:1 7:0.13304393 16:1 17:1 
8.116090355123813 1:1 2:1 5:1 6:0.17417843 7:0.16557874 11:1 13:1 
23 1:1 2:1 3:0.55501315 4:0.55501315 5:1 6:1 7:0.16081594 
23 1:1 3:0.62647645 4:0.62647645 5:1 6:1 10:1 11:1 
23 1:1 2:1 5:1 16:1 17:1 
23 1:1 5:1 7:0.20288333 12:1 13:1 
13.37013296566462 1:1 2:1 3:1 4:1 5:1 6:1 9:1 11:1 
23 1:1 3:0.29998093 4:0.29998093 5:1 6:1 7:0.16552921 16:1 
23 1:1 2:1 3:0.39497064 4:0.39497064 5:1 6:1 7:0.13509901 
23 1:1 2:1 5:1 6:1 
23 1:1 2:0.39497064 5:1 6:0.17417843 7:0.19587082 12:1 
23 1:1 2:1 5:1 6:1 10:1 
23 1:1 2:0.29998093 3:0.39497064 4:0.39497064 5:1 6:0.17417843 7:0.26317136 
23 1:1 2:1 5:1 7:0.28136387 
23 1:1 2:0.27092174 5:1 6:1 7:1 
23 1:1 3:0.11147856 4:0.11147856 5:1 6:1 7:0.62647645 
23 1:1 2:1 5:1 7:0.28136387 
-2.088463013976691 1:1 2:1 5:1 6:1 16:1 17:1 38:1 
-0.07543774103452676 1:1 2:0.29998093 5:1 6:0.17417843 7:0.62647645 12:1 
-21.15883999557824 1:1 2:1 5:1 6:1 11:1 16:1 17:1 41:1 
-41.08419469871814 1:1 2:0.29998093 5:1 6:0.17417843 7:0.62647645 12:1 
-79.10336250960827 1:1 2:1 3:0.62647645 4:0.62647645 5:1 6:1 7:1 
-37.71868182886709 1:1 2:1 3:0.27092174 4:0.27092174 5:1 6:1 7:0.098865748 16:1 
-21.89785931573867 1:1 2:1 3:0.13404407 4:0.13404407 5:1 6:1 7:0.21290671 16:1 
-8.362263763129134 1:1 2:0.18922115 3:0.18922115 4:0.18922115 5:1 6:1 7:1 13:1 16:1 
-31.40200608411264 1:1 2:1 3:0.18922115 4:0.18922115 5:1 6:1 10:1 16:1 
-29.22229037464703 1:1 3:0.18922115 4:0.18922115 5:1 6:1 7:1 17:1 
-0.6004784929661475 1:1 3:0.12154947 4:0.20831717 5:0.27092174 6:1 7:1 13:1 16:1 
-53.07814083572324 1:1 2:0.082837333 3:0.39497064 4:0.39497064 5:1 6:0.17417843 7:0.081880431 
-22.29144103442824 1:1 2:1 3:0.12996241 4:0.14521436 5:1 6:1 10:1 15:1 16:1 
-106 1:1 2:0.1675188 5:1 
-33.06067143134321 1:1 2:1 5:1 6:1 7:0.20634081 51:1 
-17.34209220091719 1:1 2:1 5:1 6:1 10:1 48:1 52:1 
